<?xml version="1.0"?>
<opencv_storage>
<stage0>
  <maxWeakCount>15</maxWeakCount>
  <stageThreshold>-1.4859992265701294e+00</stageThreshold>
  <weakClassifiers>
    <_>
      <internalNodes>
        0 -1 14391 -1.0841133594512939e+00</internalNodes>
      <leafValues>
        -7.1217709779739380e-01 7.2199362516403198e-01</leafValues></_>
    <_>
      <internalNodes>
        0 -1 155234 -4.5587755739688873e-03</internalNodes>
      <leafValues>
        -3.6569979786872864e-01 4.5494586229324341e-01</leafValues></_>
    <_>
      <internalNodes>
        0 -1 3668 8.2724913954734802e-02</internalNodes>
      <leafValues>
        -2.8451952338218689e-01 5.0152796506881714e-01</leafValues></_>
    <_>
      <internalNodes>
        0 -1 26805 -2.3937180638313293e-01</internalNodes>
      <leafValues>
        -7.1886521577835083e-01 1.4057041704654694e-01</leafValues></_>
    <_>
      <internalNodes>
        0 -1 79277 -3.2958701252937317e-02</internalNodes>
      <leafValues>
        5.3099709749221802e-01 -1.9204285740852356e-01</leafValues></_>
    <_>
      <internalNodes>
        0 -1 14017 -1.9610421441029757e-04</internalNodes>
      <leafValues>
        -3.8345575332641602e-01 2.3167423903942108e-01</leafValues></_>
    <_>
      <internalNodes>
        0 -1 101944 -1.8667493015527725e-02</internalNodes>
      <leafValues>
        6.0356122255325317e-01 -1.2377265095710754e-01</leafValues></_>
    <_>
      <internalNodes>
        0 -1 146982 -1.7087552696466446e-02</internalNodes>
      <leafValues>
        4.0414506196975708e-01 -1.7843721807003021e-01</leafValues></_>
    <_>
      <internalNodes>
        0 -1 39866 4.7184266149997711e-03</internalNodes>
      <leafValues>
        -1.4126707613468170e-01 4.6371078491210938e-01</leafValues></_>
    <_>
      <internalNodes>
        0 -1 112945 -6.9729671813547611e-03</internalNodes>
      <leafValues>
        8.7102341651916504e-01 -5.8430563658475876e-02</leafValues></_>
    <_>
      <internalNodes>
        0 -1 136345 -4.5956891030073166e-02</internalNodes>
      <leafValues>
        -4.2986087501049042e-02 9.4161999225616455e-01</leafValues></_>
    <_>
      <internalNodes>
        0 -1 142181 -4.1516833007335663e-03</internalNodes>
      <leafValues>
        4.7994360327720642e-01 -1.0727259516716003e-01</leafValues></_>
    <_>
      <internalNodes>
        0 -1 107137 1.1345532722771168e-02</internalNodes>
      <leafValues>
        -2.5148823857307434e-01 2.2115774452686310e-01</leafValues></_>
    <_>
      <internalNodes>
        0 -1 45828 -2.9376318678259850e-02</internalNodes>
      <leafValues>
        5.1389116048812866e-01 -1.1277603358030319e-01</leafValues></_>
    <_>
      <internalNodes>
        0 -1 127829 -6.5899500623345375e-03</internalNodes>
      <leafValues>
        5.9269672632217407e-01 -8.0105975270271301e-02</leafValues></_></weakClassifiers></stage0>
</opencv_storage>
