<?xml version="1.0"?>
<opencv_storage>
<stage16>
  <maxWeakCount>82</maxWeakCount>
  <stageThreshold>-5.9073150157928467e-01</stageThreshold>
  <weakClassifiers>
    <_>
      <internalNodes>
        0 -1 39400 -8.1512764096260071e-02</internalNodes>
      <leafValues>
        2.3473541438579559e-01 6.0963243246078491e-01</leafValues></_>
    <_>
      <internalNodes>
        0 -1 125314 1.3037665188312531e-01</internalNodes>
      <leafValues>
        -7.8456019982695580e-03 7.6102489233016968e-01</leafValues></_>
    <_>
      <internalNodes>
        0 -1 38800 1.6229228675365448e-01</internalNodes>
      <leafValues>
        -1.6616155207157135e-01 1.8134258687496185e-01</leafValues></_>
    <_>
      <internalNodes>
        0 -1 29677 -1.2766995467245579e-02</internalNodes>
      <leafValues>
        2.7572166919708252e-01 -9.4606958329677582e-02</leafValues></_>
    <_>
      <internalNodes>
        0 -1 151879 -1.0458325414219871e-04</internalNodes>
      <leafValues>
        -2.6159456372261047e-01 7.7443107962608337e-02</leafValues></_>
    <_>
      <internalNodes>
        0 -1 151879 1.6807427164167166e-04</internalNodes>
      <leafValues>
        9.3339994549751282e-02 -2.9793414473533630e-01</leafValues></_>
    <_>
      <internalNodes>
        0 -1 95195 -3.9973291568458080e-03</internalNodes>
      <leafValues>
        -3.9178512990474701e-02 4.7447261214256287e-01</leafValues></_>
    <_>
      <internalNodes>
        0 -1 29481 -4.2360968887805939e-02</internalNodes>
      <leafValues>
        2.1334748715162277e-02 -8.3045899868011475e-01</leafValues></_>
    <_>
      <internalNodes>
        0 -1 105390 -2.3687672801315784e-03</internalNodes>
      <leafValues>
        2.5643298029899597e-01 -8.0391459167003632e-02</leafValues></_>
    <_>
      <internalNodes>
        0 -1 153497 -5.3647570312023163e-02</internalNodes>
      <leafValues>
        3.1987097859382629e-01 -6.4998328685760498e-02</leafValues></_>
    <_>
      <internalNodes>
        0 -1 160625 -2.5040598120540380e-04</internalNodes>
      <leafValues>
        -1.6062030196189880e-01 1.3271911442279816e-01</leafValues></_>
    <_>
      <internalNodes>
        0 -1 133687 7.0703739766031504e-04</internalNodes>
      <leafValues>
        -9.3375563621520996e-02 2.0135073363780975e-01</leafValues></_>
    <_>
      <internalNodes>
        0 -1 25011 2.0787178073078394e-03</internalNodes>
      <leafValues>
        6.0799028724431992e-02 -3.2529088854789734e-01</leafValues></_>
    <_>
      <internalNodes>
        0 -1 143835 1.1139295529574156e-03</internalNodes>
      <leafValues>
        -8.0168962478637695e-02 2.3918910324573517e-01</leafValues></_>
    <_>
      <internalNodes>
        0 -1 28033 -5.0743212923407555e-03</internalNodes>
      <leafValues>
        -3.4085322171449661e-02 5.1747381687164307e-01</leafValues></_>
    <_>
      <internalNodes>
        0 -1 10870 -4.8616960644721985e-02</internalNodes>
      <leafValues>
        3.0610272660851479e-02 -6.6450816392898560e-01</leafValues></_>
    <_>
      <internalNodes>
        0 -1 143044 -3.8694110698997974e-03</internalNodes>
      <leafValues>
        2.6338467001914978e-01 -6.6686578094959259e-02</leafValues></_>
    <_>
      <internalNodes>
        0 -1 13372 6.0690414102282375e-05</internalNodes>
      <leafValues>
        9.8967902362346649e-02 -1.8157280981540680e-01</leafValues></_>
    <_>
      <internalNodes>
        0 -1 13372 -5.6966302508953959e-05</internalNodes>
      <leafValues>
        -2.1732236444950104e-01 9.2353604733943939e-02</leafValues></_>
    <_>
      <internalNodes>
        0 -1 147815 -4.4030688703060150e-02</internalNodes>
      <leafValues>
        -6.6504424810409546e-01 2.2782467305660248e-02</leafValues></_>
    <_>
      <internalNodes>
        0 -1 121111 1.4338664710521698e-02</internalNodes>
      <leafValues>
        3.6187790334224701e-02 -4.4563156366348267e-01</leafValues></_>
    <_>
      <internalNodes>
        0 -1 125464 -4.3577514588832855e-03</internalNodes>
      <leafValues>
        -4.2137295007705688e-02 4.2866680026054382e-01</leafValues></_>
    <_>
      <internalNodes>
        0 -1 162063 -2.1206033416092396e-03</internalNodes>
      <leafValues>
        4.2047806084156036e-02 -4.3286478519439697e-01</leafValues></_>
    <_>
      <internalNodes>
        0 -1 47322 -5.5432949215173721e-02</internalNodes>
      <leafValues>
        -6.7195290327072144e-01 2.2942649200558662e-02</leafValues></_>
    <_>
      <internalNodes>
        0 -1 105192 -6.5819369629025459e-03</internalNodes>
      <leafValues>
        2.2149983048439026e-01 -1.0200547426939011e-01</leafValues></_>
    <_>
      <internalNodes>
        0 -1 28810 -1.6425838693976402e-02</internalNodes>
      <leafValues>
        3.7622931599617004e-01 -4.1243340820074081e-02</leafValues></_>
    <_>
      <internalNodes>
        0 -1 42269 -2.0926845900248736e-04</internalNodes>
      <leafValues>
        -1.9161511957645416e-01 1.0066456347703934e-01</leafValues></_>
    <_>
      <internalNodes>
        0 -1 157487 1.6794145107269287e-02</internalNodes>
      <leafValues>
        3.4294154495000839e-02 -5.2329623699188232e-01</leafValues></_>
    <_>
      <internalNodes>
        0 -1 119643 1.9186185672879219e-03</internalNodes>
      <leafValues>
        -9.6757702529430389e-02 1.7366507649421692e-01</leafValues></_>
    <_>
      <internalNodes>
        0 -1 139999 -8.2823442062363029e-04</internalNodes>
      <leafValues>
        3.2878383994102478e-01 -4.5008357614278793e-02</leafValues></_>
    <_>
      <internalNodes>
        0 -1 162099 5.9563448303379118e-05</internalNodes>
      <leafValues>
        8.9190073311328888e-02 -1.7466823756694794e-01</leafValues></_>
    <_>
      <internalNodes>
        0 -1 162097 -5.4201660532271490e-05</internalNodes>
      <leafValues>
        -1.7503899335861206e-01 1.0860165208578110e-01</leafValues></_>
    <_>
      <internalNodes>
        0 -1 155155 2.4470221251249313e-03</internalNodes>
      <leafValues>
        -6.7863710224628448e-02 2.5754386186599731e-01</leafValues></_>
    <_>
      <internalNodes>
        0 -1 39087 1.9416967406868935e-02</internalNodes>
      <leafValues>
        -2.0538823679089546e-02 6.8498694896697998e-01</leafValues></_>
    <_>
      <internalNodes>
        0 -1 25964 -1.0218329261988401e-03</internalNodes>
      <leafValues>
        -2.1449658274650574e-01 7.9047143459320068e-02</leafValues></_>
    <_>
      <internalNodes>
        0 -1 162206 8.4598097600974143e-05</internalNodes>
      <leafValues>
        -1.2779603898525238e-01 1.1673636734485626e-01</leafValues></_>
    <_>
      <internalNodes>
        0 -1 161113 1.1465295392554253e-04</internalNodes>
      <leafValues>
        -1.0959614068269730e-01 1.4588803052902222e-01</leafValues></_>
    <_>
      <internalNodes>
        0 -1 159636 4.0983846411108971e-03</internalNodes>
      <leafValues>
        5.9324063360691071e-02 -2.6552429795265198e-01</leafValues></_>
    <_>
      <internalNodes>
        0 -1 24977 1.3711390085518360e-02</internalNodes>
      <leafValues>
        -6.5695881843566895e-02 2.6092916727066040e-01</leafValues></_>
    <_>
      <internalNodes>
        0 -1 133201 2.7846843004226685e-03</internalNodes>
      <leafValues>
        -1.1893786489963531e-01 1.3810215890407562e-01</leafValues></_>
    <_>
      <internalNodes>
        0 -1 155104 3.7960620829835534e-04</internalNodes>
      <leafValues>
        -9.1137312352657318e-02 1.7111495137214661e-01</leafValues></_>
    <_>
      <internalNodes>
        0 -1 136493 -6.7720832303166389e-03</internalNodes>
      <leafValues>
        -3.6283013224601746e-01 4.5003101229667664e-02</leafValues></_>
    <_>
      <internalNodes>
        0 -1 141946 -1.5245135873556137e-03</internalNodes>
      <leafValues>
        2.7591490745544434e-01 -6.5368972718715668e-02</leafValues></_>
    <_>
      <internalNodes>
        0 -1 132787 -1.5088615939021111e-02</internalNodes>
      <leafValues>
        -2.4142795801162720e-01 7.4261568486690521e-02</leafValues></_>
    <_>
      <internalNodes>
        0 -1 1837 -1.7836040258407593e-01</internalNodes>
      <leafValues>
        -8.4504234790802002e-01 1.8541593104600906e-02</leafValues></_>
    <_>
      <internalNodes>
        0 -1 83028 -1.7663711914792657e-03</internalNodes>
      <leafValues>
        1.6688661277294159e-01 -9.0310297906398773e-02</leafValues></_>
    <_>
      <internalNodes>
        0 -1 25210 -7.6174080371856689e-02</internalNodes>
      <leafValues>
        -6.2212842702865601e-01 2.4964656680822372e-02</leafValues></_>
    <_>
      <internalNodes>
        0 -1 106360 2.6655165478587151e-02</internalNodes>
      <leafValues>
        2.7424592524766922e-02 -4.9400886893272400e-01</leafValues></_>
    <_>
      <internalNodes>
        0 -1 157267 -3.0831946060061455e-03</internalNodes>
      <leafValues>
        5.3615089505910873e-02 -2.8886768221855164e-01</leafValues></_>
    <_>
      <internalNodes>
        0 -1 151659 -2.3838435299694538e-03</internalNodes>
      <leafValues>
        4.0245166420936584e-01 -4.6092595905065536e-02</leafValues></_>
    <_>
      <internalNodes>
        0 -1 110116 1.5406761085614562e-03</internalNodes>
      <leafValues>
        -3.8529831916093826e-02 3.6148318648338318e-01</leafValues></_>
    <_>
      <internalNodes>
        0 -1 161835 4.3922651093453169e-04</internalNodes>
      <leafValues>
        6.9565579295158386e-02 -2.2205716371536255e-01</leafValues></_>
    <_>
      <internalNodes>
        0 -1 25256 -3.1160891521722078e-03</internalNodes>
      <leafValues>
        1.3897767663002014e-01 -1.2003199756145477e-01</leafValues></_>
    <_>
      <internalNodes>
        0 -1 161882 -8.1686259363777936e-05</internalNodes>
      <leafValues>
        -1.1636014282703400e-01 1.2494318932294846e-01</leafValues></_>
    <_>
      <internalNodes>
        0 -1 161378 -9.1108186170458794e-03</internalNodes>
      <leafValues>
        3.3800214529037476e-01 -4.5871213078498840e-02</leafValues></_>
    <_>
      <internalNodes>
        0 -1 136145 -9.0714544057846069e-03</internalNodes>
      <leafValues>
        -4.2059054970741272e-01 3.8291919976472855e-02</leafValues></_>
    <_>
      <internalNodes>
        0 -1 141795 -7.1268156170845032e-02</internalNodes>
      <leafValues>
        4.6014001965522766e-01 -3.5845760256052017e-02</leafValues></_>
    <_>
      <internalNodes>
        0 -1 148049 -1.2459766119718552e-02</internalNodes>
      <leafValues>
        -2.0508900284767151e-01 8.0264918506145477e-02</leafValues></_>
    <_>
      <internalNodes>
        0 -1 137408 -3.8300378946587443e-04</internalNodes>
      <leafValues>
        1.5947352349758148e-01 -1.0417759418487549e-01</leafValues></_>
    <_>
      <internalNodes>
        0 -1 88232 -3.0294388998299837e-03</internalNodes>
      <leafValues>
        5.0211921334266663e-02 -3.1459724903106689e-01</leafValues></_>
    <_>
      <internalNodes>
        0 -1 88620 1.3744700700044632e-03</internalNodes>
      <leafValues>
        -1.2571682035923004e-01 1.2182688713073730e-01</leafValues></_>
    <_>
      <internalNodes>
        0 -1 93130 -5.2131675183773041e-03</internalNodes>
      <leafValues>
        -4.2523217201232910e-01 3.6700960248708725e-02</leafValues></_>
    <_>
      <internalNodes>
        0 -1 99327 -1.0128016583621502e-02</internalNodes>
      <leafValues>
        -7.6596081256866455e-01 1.8297351896762848e-02</leafValues></_>
    <_>
      <internalNodes>
        0 -1 139099 -5.1026262342929840e-02</internalNodes>
      <leafValues>
        5.7871973514556885e-01 -3.0713947489857674e-02</leafValues></_>
    <_>
      <internalNodes>
        0 -1 77267 -1.9813260436058044e-01</internalNodes>
      <leafValues>
        -9.5370545983314514e-02 1.7580506205558777e-01</leafValues></_>
    <_>
      <internalNodes>
        0 -1 80527 -9.6685276366770267e-04</internalNodes>
      <leafValues>
        1.3982640206813812e-01 -1.1513591557741165e-01</leafValues></_>
    <_>
      <internalNodes>
        0 -1 150086 -1.3928329572081566e-03</internalNodes>
      <leafValues>
        2.4033509194850922e-02 -6.7058950662612915e-01</leafValues></_>
    <_>
      <internalNodes>
        0 -1 89821 -6.0789529234170914e-03</internalNodes>
      <leafValues>
        -2.8659680485725403e-01 5.7918485254049301e-02</leafValues></_>
    <_>
      <internalNodes>
        0 -1 37824 1.0498238261789083e-03</internalNodes>
      <leafValues>
        -8.9124932885169983e-02 1.8819835782051086e-01</leafValues></_>
    <_>
      <internalNodes>
        0 -1 37850 -1.0410234099254012e-03</internalNodes>
      <leafValues>
        1.6935256123542786e-01 -1.1481519788503647e-01</leafValues></_>
    <_>
      <internalNodes>
        0 -1 148609 -2.5383787229657173e-02</internalNodes>
      <leafValues>
        -4.9086108803749084e-01 3.2079707831144333e-02</leafValues></_>
    <_>
      <internalNodes>
        0 -1 4184 1.8337868154048920e-02</internalNodes>
      <leafValues>
        -5.3243514150381088e-02 3.0501323938369751e-01</leafValues></_>
    <_>
      <internalNodes>
        0 -1 3138 1.6914260049816221e-04</internalNodes>
      <leafValues>
        -1.1762686073780060e-01 1.3678333163261414e-01</leafValues></_>
    <_>
      <internalNodes>
        0 -1 48906 -1.1276433244347572e-02</internalNodes>
      <leafValues>
        3.5426291823387146e-01 -4.5100487768650055e-02</leafValues></_>
    <_>
      <internalNodes>
        0 -1 137362 -2.5530918501317501e-03</internalNodes>
      <leafValues>
        -5.5206596851348877e-01 3.1203249469399452e-02</leafValues></_>
    <_>
      <internalNodes>
        0 -1 105087 -5.6216708617284894e-04</internalNodes>
      <leafValues>
        1.7244710028171539e-01 -9.6537761390209198e-02</leafValues></_>
    <_>
      <internalNodes>
        0 -1 14773 7.8104987740516663e-02</internalNodes>
      <leafValues>
        -8.4734626114368439e-02 1.8072085082530975e-01</leafValues></_>
    <_>
      <internalNodes>
        0 -1 56783 -8.0232657492160797e-03</internalNodes>
      <leafValues>
        3.5700702667236328e-01 -4.6051938086748123e-02</leafValues></_>
    <_>
      <internalNodes>
        0 -1 122566 -1.9890040159225464e-02</internalNodes>
      <leafValues>
        -4.8932746052742004e-02 3.2925650477409363e-01</leafValues></_>
    <_>
      <internalNodes>
        0 -1 16526 -9.1478303074836731e-02</internalNodes>
      <leafValues>
        1.4783374965190887e-01 -1.2092497199773788e-01</leafValues></_>
    <_>
      <internalNodes>
        0 -1 7429 6.4499815925955772e-03</internalNodes>
      <leafValues>
        7.0099912583827972e-02 -2.4708923697471619e-01</leafValues></_>
    <_>
      <internalNodes>
        0 -1 5015 1.6813211550470442e-04</internalNodes>
      <leafValues>
        -1.7342668771743774e-01 1.0321291536092758e-01</leafValues></_></weakClassifiers></stage16>
</opencv_storage>
