<?xml version="1.0"?>
<opencv_storage>
<stage0>
  <maxWeakCount>26</maxWeakCount>
  <stageThreshold>-1.8434069156646729e+00</stageThreshold>
  <weakClassifiers>
    <_>
      <internalNodes>
        0 -1 14391 -1.0850112438201904e+00</internalNodes>
      <leafValues>
        -8.5417973995208740e-01 5.6413447856903076e-01</leafValues></_>
    <_>
      <internalNodes>
        0 -1 38467 -7.3156401515007019e-02</internalNodes>
      <leafValues>
        -5.4220706224441528e-01 3.0006095767021179e-01</leafValues></_>
    <_>
      <internalNodes>
        0 -1 6298 8.1761792302131653e-02</internalNodes>
      <leafValues>
        -2.9071825742721558e-01 4.7041684389114380e-01</leafValues></_>
    <_>
      <internalNodes>
        0 -1 50224 9.4028022140264511e-03</internalNodes>
      <leafValues>
        -3.2579529285430908e-01 3.0098116397857666e-01</leafValues></_>
    <_>
      <internalNodes>
        0 -1 138012 -1.0948754847049713e-02</internalNodes>
      <leafValues>
        3.8191258907318115e-01 -2.0305944979190826e-01</leafValues></_>
    <_>
      <internalNodes>
        0 -1 111242 -3.8498744368553162e-02</internalNodes>
      <leafValues>
        -1.0125724226236343e-01 9.5712292194366455e-01</leafValues></_>
    <_>
      <internalNodes>
        0 -1 24031 -9.5146834850311279e-02</internalNodes>
      <leafValues>
        1.3559480011463165e-01 -5.1102828979492188e-01</leafValues></_>
    <_>
      <internalNodes>
        0 -1 61243 4.8757055401802063e-01</internalNodes>
      <leafValues>
        8.6979553103446960e-02 -7.4988746643066406e-01</leafValues></_>
    <_>
      <internalNodes>
        0 -1 2131 -1.0008871555328369e-02</internalNodes>
      <leafValues>
        -7.2331100702285767e-01 3.6883298307657242e-02</leafValues></_>
    <_>
      <internalNodes>
        0 -1 61282 -1.3425180315971375e-01</internalNodes>
      <leafValues>
        -3.9010784029960632e-01 1.7953139543533325e-01</leafValues></_>
    <_>
      <internalNodes>
        0 -1 67337 -2.4623544886708260e-03</internalNodes>
      <leafValues>
        3.3394354581832886e-01 -1.5846922993659973e-01</leafValues></_>
    <_>
      <internalNodes>
        0 -1 78952 -2.9208242893218994e-02</internalNodes>
      <leafValues>
        5.1338177919387817e-01 -1.0962510108947754e-01</leafValues></_>
    <_>
      <internalNodes>
        0 -1 126894 1.3385252095758915e-03</internalNodes>
      <leafValues>
        -1.2053468823432922e-01 4.6443641185760498e-01</leafValues></_>
    <_>
      <internalNodes>
        0 -1 127535 -7.9433955252170563e-03</internalNodes>
      <leafValues>
        4.5867571234703064e-01 -1.0241961479187012e-01</leafValues></_>
    <_>
      <internalNodes>
        0 -1 147333 -4.6827951446175575e-03</internalNodes>
      <leafValues>
        6.0099148750305176e-01 -7.1531511843204498e-02</leafValues></_>
    <_>
      <internalNodes>
        0 -1 6862 3.8858547806739807e-02</internalNodes>
      <leafValues>
        -9.4332017004489899e-02 4.0192413330078125e-01</leafValues></_>
    <_>
      <internalNodes>
        0 -1 138377 -7.6207239180803299e-03</internalNodes>
      <leafValues>
        3.8513511419296265e-01 -1.1467105895280838e-01</leafValues></_>
    <_>
      <internalNodes>
        0 -1 122140 -2.9475612565875053e-02</internalNodes>
      <leafValues>
        6.1865824460983276e-01 -6.8127699196338654e-02</leafValues></_>
    <_>
      <internalNodes>
        0 -1 75587 -1.3515663146972656e-01</internalNodes>
      <leafValues>
        -4.9200948327779770e-02 7.7006852626800537e-01</leafValues></_>
    <_>
      <internalNodes>
        0 -1 55057 -1.1342909187078476e-02</internalNodes>
      <leafValues>
        4.0467190742492676e-01 -1.0458134859800339e-01</leafValues></_>
    <_>
      <internalNodes>
        0 -1 78465 3.8154351059347391e-03</internalNodes>
      <leafValues>
        -1.1757935583591461e-01 3.3666324615478516e-01</leafValues></_>
    <_>
      <internalNodes>
        0 -1 155221 -5.5066682398319244e-04</internalNodes>
      <leafValues>
        -2.9312905669212341e-01 1.4966976642608643e-01</leafValues></_>
    <_>
      <internalNodes>
        0 -1 127765 1.2730914168059826e-03</internalNodes>
      <leafValues>
        -1.1890040338039398e-01 3.6234360933303833e-01</leafValues></_>
    <_>
      <internalNodes>
        0 -1 26 -4.0145921520888805e-03</internalNodes>
      <leafValues>
        -3.9766150712966919e-01 1.1905755847692490e-01</leafValues></_>
    <_>
      <internalNodes>
        0 -1 117064 3.0052065849304199e-03</internalNodes>
      <leafValues>
        -1.1843562871217728e-01 3.4195494651794434e-01</leafValues></_>
    <_>
      <internalNodes>
        0 -1 161828 -6.0153524391353130e-03</internalNodes>
      <leafValues>
        -2.9531183838844299e-01 1.3235850632190704e-01</leafValues></_></weakClassifiers></stage0>
</opencv_storage>
