<?xml version="1.0"?>
<opencv_storage>
<stage9>
  <maxWeakCount>100</maxWeakCount>
  <stageThreshold>-1.2706117630004883e+00</stageThreshold>
  <weakClassifiers>
    <_>
      <internalNodes>
        0 -1 151971 -1.6232661902904510e-02</internalNodes>
      <leafValues>
        -3.1726384162902832e-01 1.9756592810153961e-01</leafValues></_>
    <_>
      <internalNodes>
        0 -1 57647 -8.0717161297798157e-02</internalNodes>
      <leafValues>
        2.1935094892978668e-01 -2.4403063952922821e-01</leafValues></_>
    <_>
      <internalNodes>
        0 -1 111704 -2.7096508070826530e-02</internalNodes>
      <leafValues>
        -4.6854186803102493e-02 7.1285194158554077e-01</leafValues></_>
    <_>
      <internalNodes>
        0 -1 135697 -6.9464080035686493e-02</internalNodes>
      <leafValues>
        2.6637560129165649e-01 -1.1504101753234863e-01</leafValues></_>
    <_>
      <internalNodes>
        0 -1 80745 -1.4410217409022152e-04</internalNodes>
      <leafValues>
        -2.3285135626792908e-01 1.0585901141166687e-01</leafValues></_>
    <_>
      <internalNodes>
        0 -1 80745 1.5756688662804663e-04</internalNodes>
      <leafValues>
        1.0833129286766052e-01 -2.4538277089595795e-01</leafValues></_>
    <_>
      <internalNodes>
        0 -1 14414 6.2092292308807373e-01</internalNodes>
      <leafValues>
        3.3341448754072189e-02 -6.2670707702636719e-01</leafValues></_>
    <_>
      <internalNodes>
        0 -1 26593 -1.5912094712257385e-01</internalNodes>
      <leafValues>
        -1.9210635125637054e-01 1.0385479778051376e-01</leafValues></_>
    <_>
      <internalNodes>
        0 -1 87316 -2.1589621901512146e-01</internalNodes>
      <leafValues>
        1.0015433281660080e-01 -2.6162323355674744e-01</leafValues></_>
    <_>
      <internalNodes>
        0 -1 127747 -7.9705100506544113e-04</internalNodes>
      <leafValues>
        2.6415809988975525e-01 -6.8905688822269440e-02</leafValues></_>
    <_>
      <internalNodes>
        0 -1 80625 4.9836328253149986e-04</internalNodes>
      <leafValues>
        -1.2027481943368912e-01 1.5503789484500885e-01</leafValues></_>
    <_>
      <internalNodes>
        0 -1 162332 1.1027164291590452e-03</internalNodes>
      <leafValues>
        5.4462395608425140e-02 -2.8072786331176758e-01</leafValues></_>
    <_>
      <internalNodes>
        0 -1 8302 -1.7491392791271210e-02</internalNodes>
      <leafValues>
        2.2600901126861572e-01 -6.5538473427295685e-02</leafValues></_>
    <_>
      <internalNodes>
        0 -1 119035 3.2556757330894470e-02</internalNodes>
      <leafValues>
        -2.6422368362545967e-02 5.9663605690002441e-01</leafValues></_>
    <_>
      <internalNodes>
        0 -1 36286 2.5900473701767623e-04</internalNodes>
      <leafValues>
        -1.2385373562574387e-01 1.3092176616191864e-01</leafValues></_>
    <_>
      <internalNodes>
        0 -1 86468 -2.4657715111970901e-02</internalNodes>
      <leafValues>
        8.6192131042480469e-02 -1.7839710414409637e-01</leafValues></_>
    <_>
      <internalNodes>
        0 -1 142711 -2.8182335197925568e-02</internalNodes>
      <leafValues>
        -9.9845744669437408e-02 1.8663002550601959e-01</leafValues></_>
    <_>
      <internalNodes>
        0 -1 149647 -4.1131377220153809e-03</internalNodes>
      <leafValues>
        2.3214057087898254e-02 -8.0850279331207275e-01</leafValues></_>
    <_>
      <internalNodes>
        0 -1 9436 9.4969014753587544e-05</internalNodes>
      <leafValues>
        8.8674306869506836e-02 -1.6247455775737762e-01</leafValues></_>
    <_>
      <internalNodes>
        0 -1 8818 -3.0594677082262933e-04</internalNodes>
      <leafValues>
        -1.9379536807537079e-01 8.3837389945983887e-02</leafValues></_>
    <_>
      <internalNodes>
        0 -1 38511 -2.0533162355422974e-01</internalNodes>
      <leafValues>
        -6.9017809629440308e-01 2.1830806508660316e-02</leafValues></_>
    <_>
      <internalNodes>
        0 -1 157538 2.8848806323367171e-05</internalNodes>
      <leafValues>
        -1.2218260020017624e-01 1.2159330397844315e-01</leafValues></_>
    <_>
      <internalNodes>
        0 -1 114278 -7.9011470079421997e-03</internalNodes>
      <leafValues>
        2.8231430053710938e-01 -5.0612207502126694e-02</leafValues></_>
    <_>
      <internalNodes>
        0 -1 161182 -2.2130832076072693e-04</internalNodes>
      <leafValues>
        -2.3232571780681610e-01 5.8093611150979996e-02</leafValues></_>
    <_>
      <internalNodes>
        0 -1 70684 -1.8162589985877275e-03</internalNodes>
      <leafValues>
        2.0091430842876434e-01 -8.2323886454105377e-02</leafValues></_>
    <_>
      <internalNodes>
        0 -1 161178 3.4767610486596823e-04</internalNodes>
      <leafValues>
        7.2935938835144043e-02 -2.2441020607948303e-01</leafValues></_>
    <_>
      <internalNodes>
        0 -1 98629 -1.7665807390585542e-03</internalNodes>
      <leafValues>
        2.0600344240665436e-01 -8.0646842718124390e-02</leafValues></_>
    <_>
      <internalNodes>
        0 -1 92651 6.6929091699421406e-03</internalNodes>
      <leafValues>
        -7.2274476289749146e-02 2.1877695620059967e-01</leafValues></_>
    <_>
      <internalNodes>
        0 -1 133591 1.5649643319193274e-04</internalNodes>
      <leafValues>
        -8.5289716720581055e-02 1.6589893400669098e-01</leafValues></_>
    <_>
      <internalNodes>
        0 -1 28799 -9.6291201189160347e-03</internalNodes>
      <leafValues>
        3.4164890646934509e-01 -3.6807063966989517e-02</leafValues></_>
    <_>
      <internalNodes>
        0 -1 2221 -3.2239612191915512e-03</internalNodes>
      <leafValues>
        -2.2396896779537201e-01 6.3199453055858612e-02</leafValues></_>
    <_>
      <internalNodes>
        0 -1 142417 -2.0415468607097864e-03</internalNodes>
      <leafValues>
        1.6789436340332031e-01 -8.0927900969982147e-02</leafValues></_>
    <_>
      <internalNodes>
        0 -1 48102 -7.8848972916603088e-03</internalNodes>
      <leafValues>
        2.2913292050361633e-01 -5.4585747420787811e-02</leafValues></_>
    <_>
      <internalNodes>
        0 -1 24163 7.9285884276032448e-03</internalNodes>
      <leafValues>
        -5.9488341212272644e-02 2.2375714778900146e-01</leafValues></_>
    <_>
      <internalNodes>
        0 -1 97807 6.2135141342878342e-03</internalNodes>
      <leafValues>
        -5.7681187987327576e-02 2.1544529497623444e-01</leafValues></_>
    <_>
      <internalNodes>
        0 -1 89826 -4.4854697771370411e-03</internalNodes>
      <leafValues>
        -1.6570881009101868e-01 8.1751666963100433e-02</leafValues></_>
    <_>
      <internalNodes>
        0 -1 159701 -2.9167758766561747e-03</internalNodes>
      <leafValues>
        5.1722310483455658e-02 -2.5933367013931274e-01</leafValues></_>
    <_>
      <internalNodes>
        0 -1 143434 -3.3857026137411594e-03</internalNodes>
      <leafValues>
        1.3156482577323914e-01 -1.2697561085224152e-01</leafValues></_>
    <_>
      <internalNodes>
        0 -1 36058 1.0343438386917114e-01</internalNodes>
      <leafValues>
        4.2292933911085129e-02 -3.9498168230056763e-01</leafValues></_>
    <_>
      <internalNodes>
        0 -1 69734 -4.2867930606007576e-03</internalNodes>
      <leafValues>
        2.0321394503116608e-01 -7.6071292161941528e-02</leafValues></_>
    <_>
      <internalNodes>
        0 -1 113191 1.9037868827581406e-02</internalNodes>
      <leafValues>
        4.8418361693620682e-02 -2.9928308725357056e-01</leafValues></_>
    <_>
      <internalNodes>
        0 -1 89429 8.9974084403365850e-05</internalNodes>
      <leafValues>
        -9.6190944314002991e-02 1.4264178276062012e-01</leafValues></_>
    <_>
      <internalNodes>
        0 -1 144252 2.3031984455883503e-03</internalNodes>
      <leafValues>
        5.7973977178335190e-02 -2.3636494576931000e-01</leafValues></_>
    <_>
      <internalNodes>
        0 -1 60420 9.8064192570745945e-05</internalNodes>
      <leafValues>
        8.0180093646049500e-02 -1.7246869206428528e-01</leafValues></_>
    <_>
      <internalNodes>
        0 -1 81056 9.1275930404663086e-02</internalNodes>
      <leafValues>
        2.6862438768148422e-02 -4.7500258684158325e-01</leafValues></_>
    <_>
      <internalNodes>
        0 -1 918 3.6300963163375854e-01</internalNodes>
      <leafValues>
        2.0403215661644936e-02 -5.8194726705551147e-01</leafValues></_>
    <_>
      <internalNodes>
        0 -1 128686 -1.5450827777385712e-02</internalNodes>
      <leafValues>
        1.8413867056369781e-01 -7.1460291743278503e-02</leafValues></_>
    <_>
      <internalNodes>
        0 -1 82505 -2.3192130029201508e-02</internalNodes>
      <leafValues>
        -3.1693331897258759e-02 4.5061200857162476e-01</leafValues></_>
    <_>
      <internalNodes>
        0 -1 103377 5.0692567601799965e-03</internalNodes>
      <leafValues>
        -8.3557091653347015e-02 1.6286337375640869e-01</leafValues></_>
    <_>
      <internalNodes>
        0 -1 95440 5.6380853056907654e-03</internalNodes>
      <leafValues>
        -8.5224620997905731e-02 1.4670407772064209e-01</leafValues></_>
    <_>
      <internalNodes>
        0 -1 709 1.0642053559422493e-02</internalNodes>
      <leafValues>
        -1.3487778604030609e-01 8.8857702910900116e-02</leafValues></_>
    <_>
      <internalNodes>
        0 -1 60267 -2.9853009618818760e-04</internalNodes>
      <leafValues>
        -1.6860072314739227e-01 7.6903529465198517e-02</leafValues></_>
    <_>
      <internalNodes>
        0 -1 113558 -4.0572853758931160e-03</internalNodes>
      <leafValues>
        -7.3150295019149780e-01 1.6137454658746719e-02</leafValues></_>
    <_>
      <internalNodes>
        0 -1 60309 -7.4841198511421680e-04</internalNodes>
      <leafValues>
        1.2780058383941650e-01 -9.6800953149795532e-02</leafValues></_>
    <_>
      <internalNodes>
        0 -1 127087 2.2843918122816831e-04</internalNodes>
      <leafValues>
        -7.3265366256237030e-02 1.5579064190387726e-01</leafValues></_>
    <_>
      <internalNodes>
        0 -1 59630 7.7674197964370251e-03</internalNodes>
      <leafValues>
        -7.7650040388107300e-02 1.5392778813838959e-01</leafValues></_>
    <_>
      <internalNodes>
        0 -1 161995 3.7937336601316929e-03</internalNodes>
      <leafValues>
        6.1637140810489655e-02 -2.1874898672103882e-01</leafValues></_>
    <_>
      <internalNodes>
        0 -1 138574 2.8704656288027763e-02</internalNodes>
      <leafValues>
        -4.6219665557146072e-02 3.2137629389762878e-01</leafValues></_>
    <_>
      <internalNodes>
        0 -1 151879 -1.9005374633707106e-04</internalNodes>
      <leafValues>
        -1.9549238681793213e-01 6.6127792000770569e-02</leafValues></_>
    <_>
      <internalNodes>
        0 -1 43907 -2.8977257013320923e-01</internalNodes>
      <leafValues>
        -1.5703350305557251e-01 7.9277828335762024e-02</leafValues></_>
    <_>
      <internalNodes>
        0 -1 45465 -4.0242326259613037e-01</internalNodes>
      <leafValues>
        2.1654032170772552e-01 -6.4572781324386597e-02</leafValues></_>
    <_>
      <internalNodes>
        0 -1 121382 -9.7617339342832565e-03</internalNodes>
      <leafValues>
        -3.8951024413108826e-02 3.4114322066307068e-01</leafValues></_>
    <_>
      <internalNodes>
        0 -1 599 -1.1782377958297729e-01</internalNodes>
      <leafValues>
        3.6192002892494202e-01 -3.3839132636785507e-02</leafValues></_>
    <_>
      <internalNodes>
        0 -1 64516 3.9108403027057648e-02</internalNodes>
      <leafValues>
        1.9145973026752472e-02 -7.2742265462875366e-01</leafValues></_>
    <_>
      <internalNodes>
        0 -1 89603 -8.8040682021528482e-04</internalNodes>
      <leafValues>
        1.4558267593383789e-01 -8.9510612189769745e-02</leafValues></_>
    <_>
      <internalNodes>
        0 -1 13641 -5.0799604505300522e-03</internalNodes>
      <leafValues>
        2.3893254995346069e-01 -5.2673365920782089e-02</leafValues></_>
    <_>
      <internalNodes>
        0 -1 161792 -1.9338900165166706e-04</internalNodes>
      <leafValues>
        -1.4780588448047638e-01 8.5098020732402802e-02</leafValues></_>
    <_>
      <internalNodes>
        0 -1 161831 1.0673365613911301e-04</internalNodes>
      <leafValues>
        8.4713853895664215e-02 -1.9516608119010925e-01</leafValues></_>
    <_>
      <internalNodes>
        0 -1 2958 1.3895310461521149e-01</internalNodes>
      <leafValues>
        2.9306828975677490e-02 -4.1970071196556091e-01</leafValues></_>
    <_>
      <internalNodes>
        0 -1 107452 -1.0253878310322762e-02</internalNodes>
      <leafValues>
        -5.7710713148117065e-01 2.1174103021621704e-02</leafValues></_>
    <_>
      <internalNodes>
        0 -1 46337 4.2665409855544567e-03</internalNodes>
      <leafValues>
        -7.1177572011947632e-02 1.7685115337371826e-01</leafValues></_>
    <_>
      <internalNodes>
        0 -1 18168 -5.1318190991878510e-02</internalNodes>
      <leafValues>
        -4.8981299996376038e-01 2.7299432083964348e-02</leafValues></_>
    <_>
      <internalNodes>
        0 -1 15553 1.0900143533945084e-02</internalNodes>
      <leafValues>
        -8.6186163127422333e-02 1.4759045839309692e-01</leafValues></_>
    <_>
      <internalNodes>
        0 -1 51242 3.9920478593558073e-04</internalNodes>
      <leafValues>
        1.1361505836248398e-01 -1.2811565399169922e-01</leafValues></_>
    <_>
      <internalNodes>
        0 -1 131624 9.1768503189086914e-03</internalNodes>
      <leafValues>
        7.3191843926906586e-02 -1.8864333629608154e-01</leafValues></_>
    <_>
      <internalNodes>
        0 -1 56382 -1.0121716186404228e-03</internalNodes>
      <leafValues>
        1.5729638934135437e-01 -7.9562231898307800e-02</leafValues></_>
    <_>
      <internalNodes>
        0 -1 67493 7.4756391346454620e-02</internalNodes>
      <leafValues>
        -3.7182666361331940e-02 3.6238598823547363e-01</leafValues></_>
    <_>
      <internalNodes>
        0 -1 33803 6.4944967627525330e-02</internalNodes>
      <leafValues>
        -2.7263717725872993e-02 4.4343963265419006e-01</leafValues></_>
    <_>
      <internalNodes>
        0 -1 20647 5.1258444786071777e-02</internalNodes>
      <leafValues>
        -8.5760869085788727e-02 1.4051204919815063e-01</leafValues></_>
    <_>
      <internalNodes>
        0 -1 113281 -2.3717224597930908e-02</internalNodes>
      <leafValues>
        -8.1458461284637451e-01 1.5369764529168606e-02</leafValues></_>
    <_>
      <internalNodes>
        0 -1 31448 -2.0033898949623108e-01</internalNodes>
      <leafValues>
        -7.6535534858703613e-01 1.4433513395488262e-02</leafValues></_>
    <_>
      <internalNodes>
        0 -1 131208 -3.1543557997792959e-03</internalNodes>
      <leafValues>
        -5.8498334884643555e-01 1.6706602647900581e-02</leafValues></_>
    <_>
      <internalNodes>
        0 -1 11428 -1.0573351755738258e-02</internalNodes>
      <leafValues>
        2.3332300782203674e-01 -5.4826367646455765e-02</leafValues></_>
    <_>
      <internalNodes>
        0 -1 78618 1.6822583973407745e-02</internalNodes>
      <leafValues>
        -7.2630502283573151e-02 1.8885527551174164e-01</leafValues></_>
    <_>
      <internalNodes>
        0 -1 128126 1.2138172984123230e-02</internalNodes>
      <leafValues>
        -2.8958721086382866e-02 4.1756054759025574e-01</leafValues></_>
    <_>
      <internalNodes>
        0 -1 35409 -1.2023554882034659e-03</internalNodes>
      <leafValues>
        1.6182182356715202e-02 -7.4807792901992798e-01</leafValues></_>
    <_>
      <internalNodes>
        0 -1 24254 -5.5453684180974960e-02</internalNodes>
      <leafValues>
        -3.3188724517822266e-01 3.2093811780214310e-02</leafValues></_>
    <_>
      <internalNodes>
        0 -1 20339 4.7060154378414154e-02</internalNodes>
      <leafValues>
        -1.8971467390656471e-02 6.6421967744827271e-01</leafValues></_>
    <_>
      <internalNodes>
        0 -1 9461 5.5314116179943085e-03</internalNodes>
      <leafValues>
        6.3500359654426575e-02 -1.9225764274597168e-01</leafValues></_>
    <_>
      <internalNodes>
        0 -1 70472 1.1957923416048288e-03</internalNodes>
      <leafValues>
        -7.9190932214260101e-02 1.5132208168506622e-01</leafValues></_>
    <_>
      <internalNodes>
        0 -1 143845 1.4112472999840975e-03</internalNodes>
      <leafValues>
        -6.0966223478317261e-02 2.0378269255161285e-01</leafValues></_>
    <_>
      <internalNodes>
        0 -1 138672 -1.4608809724450111e-02</internalNodes>
      <leafValues>
        -9.7172588109970093e-02 1.3228714466094971e-01</leafValues></_>
    <_>
      <internalNodes>
        0 -1 82514 4.0627755224704742e-02</internalNodes>
      <leafValues>
        -6.9524787366390228e-02 1.6453780233860016e-01</leafValues></_>
    <_>
      <internalNodes>
        0 -1 32397 -6.6087609156966209e-03</internalNodes>
      <leafValues>
        2.9142338037490845e-01 -4.9474958330392838e-02</leafValues></_>
    <_>
      <internalNodes>
        0 -1 126939 -1.1524377390742302e-02</internalNodes>
      <leafValues>
        1.7451858147978783e-02 -7.5817584991455078e-01</leafValues></_>
    <_>
      <internalNodes>
        0 -1 47869 -3.5303953336551785e-04</internalNodes>
      <leafValues>
        -1.5767739713191986e-01 7.4329219758510590e-02</leafValues></_>
    <_>
      <internalNodes>
        0 -1 68227 6.2357373535633087e-02</internalNodes>
      <leafValues>
        -1.2632024474442005e-02 8.8030982017517090e-01</leafValues></_>
    <_>
      <internalNodes>
        0 -1 118555 1.6117894649505615e-01</internalNodes>
      <leafValues>
        -1.1032483540475368e-02 7.5706881284713745e-01</leafValues></_>
    <_>
      <internalNodes>
        0 -1 91261 1.2068466749042273e-03</internalNodes>
      <leafValues>
        9.2264093458652496e-02 -1.2526533007621765e-01</leafValues></_>
    <_>
      <internalNodes>
        0 -1 93186 -2.0155731588602066e-02</internalNodes>
      <leafValues>
        -7.3346292972564697e-01 1.5780180692672729e-02</leafValues></_></weakClassifiers></stage9>
</opencv_storage>
